"[[[1.5487196934180323, -0.11007393702290891, -0.504105345994174, 1.8394706163397512, 1.2343407508542608, -0.17697555834522624, 1.5775662523950884, 1.3717587673487919, 0.1994242359510845, 0.7893356898906538, -0.10812986918362583, -0.12453714991530512, -0.22783275015315974, -0.18518096390229274, -0.7373589647789466, 0.9550393859072905], [-0.47168849938088403, 0.8247264735916174, 0.5035229871787945, -0.4024715966906315, 1.2649057103935188, -0.3779266052243942, -0.4461316838771425, 0.14367522991973802, 0.3887752535290201, -0.8861905922758064, -2.1526303186357385, 1.4453167902121418, -0.7323710668361586, 2.1526983116372955, -0.34683654421015914, 0.893259846548119], [1.710214749515883, -0.6002832198121953, -1.515537634317115, 1.4969283178457815, -0.9434928420652364, -0.7665517187535177, -1.425238167548333, 0.9869560111003478, -0.33926047277374977, 1.9214500999629822, -0.9169451837707157, -0.05478289683407802, -1.137355979526792, 0.5512675445722242, -0.23504856412712155, -1.7486771701865567], [-0.8144622975963004, -0.6664996088069423, 1.3244878839087975, -0.6351837618272699, -0.8627747245443209, 0.5826979075102412, 0.9580529621951077, -1.4589833830998997, 0.4872003071529574, -1.3489125411540597, -0.5407130444889663, 0.07628557681972613, -0.23538019022740875, -0.6212360697695298, -0.3498242467356561, 0.23053646297128616], [0.039537268961679084, -0.17718274405532708, 1.118870541311766, -0.2367454619173957, -1.366579116089808, -0.18465685972008977, -1.273606885855429, 1.5864901448176, 0.09495678286399815, -0.05328188810351244, -0.49386464762306354, 1.331589459388205, 0.39605764366526985, 0.9922230692386012, 0.3939575126605725, -1.2612135654471257], [-0.12401209216457244, 0.16562607760390724, 0.4816070111188131, -0.42410338401259096, 0.3702930022205428, 0.5689760001779042, 0.9190292534426527, -0.07963299466626776, 1.9325216647549885, 0.27644034180121363, 0.3088348647168024, 0.5025918087804537, -0.6809735699666017, -0.4347010206917774, -0.8578194868185454, 0.6053897821995325], [-0.01881767450919363, -1.4306372173732822, -0.4081822093783161, 0.0798951098264754, -1.5933228270409936, 0.630085330671139, -1.2443457202690087, 0.06769872989664719, 0.5178472944880328, 0.8955760944625832, 0.4158445805412781, 0.7836286225312725, 0.28711326953616717, 1.5286749716567447, -0.7951174178999432, 0.4507593353150033], [-1.0898099928363592, -1.2197509971347664, 1.5114415400780277, -0.9270847677561098, -2.1124413498861845, 0.19774629749450348, 2.269516403277197, 1.9352967529254317, 1.5452640265261097, 0.0879334895583341, 0.8427360633837225, 0.6393877118796052, -0.4396436601037459, -0.8587522171822866, -0.1068508578881661, -0.0835456935859956], [-0.6049244152052661, 1.3917936915343674, -1.46583914790508, -0.8356847613177397, 1.3197594293292865, -1.2871647704854734, -0.186672904471355, -0.1896458547658732, 0.004144594075252482, -0.014251962372546775, -0.4054109703689517, -0.09633078051109116, -0.359947478641089, 0.03640834950934289, 0.1375943236480794, -0.9021508620736716], [-1.1981975414166777, -0.4547847161702133, 0.5252336445470606, -1.3063112574925773, -0.029173302249978366, 0.1293143538787136, 0.18568340695767005, 0.26658988885751217, 0.7442273003809174, 1.4613928025946503, -1.3315878191377422, 0.0932584354846389, -0.30629272266563706, 0.7407627583072259, -0.698180035657497, -0.7631308621843762], [0.23949772817411594, -0.06934080902168496, -1.1513146753744479, 0.712086507185073, -2.0733681712389354, -0.1603858175133678, 1.2259402565663937, 0.46104500609359284, -0.9939707179989226, -0.3650149732650765, 0.49269408583026125, -0.045933145067592926, 1.3117571170990319, 0.1671920501884999, 2.3969672178387476, -0.565136446755048], [-0.036659141957883716, 0.06983940951617947, -2.1862542122341537, -1.0762679331454719, 0.20971519951915998, 0.5340698514845469, 0.6255614181160739, 1.1781465318104702, 0.7191889076187713, -0.5237275660190868, -0.4899945558360996, -0.830090986401472, -0.8271835039206411, 0.19259314276149178, 0.3363609657908093, -0.12330010749599392], [-0.11273571468206997, -0.46464846691978434, -0.6793861655702241, 0.06598236183944031, 0.14825763993007335, -0.6546098566327848, 0.9845501131110991, -0.05741078976252183, 1.7815529894726991, 0.45576593535186843, 0.4643630014557757, 0.6990627945658178, 0.31873751021019464, 1.4763989944868536, 2.1102324544910087, -0.23352588285332415], [-0.2952706976124583, -0.2321027734403622, 0.7469454568574452, -0.5725757983441084, 1.6007320809192207, -0.46364254241038727, -0.8716655119738039, -1.3754570313375944, -0.6281524729914679, -0.26781144733325035, -0.11515350085099729, -1.168987144700048, 0.14645172679682314, 1.001882474374241, 1.0800799770796314, -0.1395196225193584], [-0.2626429953560424, 0.0901893332078469, 2.352321037909528, 0.5497228900955193, 0.936359471202997, 0.6273097893651731, -0.5122103539078093, -0.2607140673974942, 1.653941680324793, -1.0863202588545553, -1.3508070571115256, 1.349283289147667, 0.7431994336746971, 0.6340617820544426, 1.8146519283057585, -1.034473659115663], [-0.11131891347591416, 1.6728097272357987, 0.0024578710892154874, -1.5150579740387033, -0.2576992001885282, 2.1439141710096323, 0.8474204505928418, -0.8189370705541145, 1.2119795004471636, -1.2714743689417012, -0.4858816796750139, 0.1854607679756657, -0.399955049629538, 0.8524165126655999, 1.4710106562377072, 1.5150607302173604], [1.7096609042585267, 1.1152099518549097, -0.07478089960265372, 0.09709017486176191, 0.39263155425972346, 0.5348320483655135, -0.7385193972240867, 1.0064620441743224, -0.45313358394687253, -1.4696221287253364, 2.0408100962041784, 0.11929409017031026, -0.0855987902048533, 1.1098132051742071, 0.44729279667215843, 0.6189792050332065], [0.5547816013910507, -0.1680109725886899, -0.8520995561068936, -0.3568847936855409, -0.43137227146832197, 0.1443106990580812, 0.02082887251423072, 0.41093089734854654, -0.806202759579965, -0.5390532584709649, 1.51894372248322, 1.3574839934151903, -0.1861320272048555, -0.16011689242623253, 0.9526071123789224, 0.6895220829657964], [0.43712806831110507, 0.4834052120424369, -1.0823842833737796, -1.8333120244086138, -0.36155248884201, 0.038673106089416924, 1.2739996221259313, 0.4385711401070332, -0.5931187830074074, 0.30612587831423205, 0.46590100887410296, 0.682337761586764, 1.220277225896085, 0.5041673985783534, -1.7752014155000282, 0.8072174804282397], [0.3903189535937439, 0.9384714808803418, 1.8936510391618069, -2.3242253093166108, -1.7067645272198353, -0.45014199590647613, -0.7148386129782681, -1.1436898943295222, 0.955588885174009, -2.3103175564019516, 0.5969370516615752, 0.029352031506974168, 0.6439206552711093, -1.4119473314822732, 0.11112004533898313, 0.5783391982332379], [0.9925265576192618, -0.5931313796799279, 1.5182287249087856, 0.0993271667392042, -0.9195453816634059, -2.3515701976552474, 1.200504934854554, -0.7242891388719493, 1.0146472424289052, -0.47985648663115243, 0.22393542034576996, -1.5998170618100578, 1.2996422510397365, -0.37585946314903756, -0.7417628822469509, -0.8488858857865035], [-0.3010608077905023, 0.38095857535743083, -1.227002795289431, -0.20641253828105682, -0.1627061447683203, -1.6899344015403246, 0.17858002885553184, 0.7601959941943377, 0.6601845435775792, -0.05969614078061264, 0.6822000340715484, -0.5471396220916601, 0.9336742391324108, 0.7736339329338747, -0.8834517064876071, -0.8194722998302083], [-0.45680060056973065, 0.10397041285241332, -0.448134228711447, 0.2924861882053087, -1.289502116550211, 1.4517569228423552, 0.44421655203083427, 0.8097799077828136, 1.3724522148152059, 0.8088225415657768, -0.06468239830941049, -0.20317105116658257, 0.07100894990548752, 2.022029511193589, 0.7421199891140201, 0.40106419489333006], [-0.5448172094914038, -0.8790159401129375, -0.15864721435091383, -0.6587798773584402, 0.7883523556413874, -0.5655378668142952, -0.751151993520565, 1.1542084341408276, -0.36623329688181383, 0.6753559099333564, -0.5448665214808727, -0.8060685362850345, -0.9375057589854823, 0.786830700093113, 0.2793918637620203, -0.4453898772261758], [0.9050931481142592, -0.7808526421474608, -0.858917720417478, 0.8146162040220329, -0.2392378117610431, 0.6919365482529671, -1.122717957459269, 1.1216025658691358, -0.6710729272007973, 0.4013179353992061, 0.5298950079166413, -0.7512447312595678, -0.5410463900325951, 1.449079359956872, 1.3865589397509428, -0.4939972118692286], [-0.9437123175683514, -0.3479011694995322, -0.4802253034918818, -0.43084351348422767, 1.3661125731507473, 0.02960924908012667, 0.09346474624131426, 2.004631451351414, -1.7298286729160417, -0.2212295183315142, 1.877745512992338, 0.4263240315484735, 0.3770963718939018, 0.025286151622712125, 0.1193421924310568, 0.36791252251665774], [-0.5402392681051706, 0.5385520589162078, 2.4848138854088337, -2.030603535874811, -2.016612543273255, 0.2657891366999864, 1.0229625216366902, 0.38558813080726806, -1.2282074697278103, -0.12206577187858357, 0.9228109599009457, -0.3253887523029469, -1.6251160610854434, 1.4206275900815133, -0.1379650793414868, 1.1604639339024831], [0.14465446802866103, 0.12699188371338802, -0.776762331969476, -0.22053844239910814, -2.2336182972846363, -1.5436882031375094, -0.9970198906353059, 0.2664134677494054, -0.18121953003610625, -1.5909820222545437, 0.4110014713318056, 1.0827283345333703, -0.3751316704165745, -2.0736969842967237, -0.5625150191011005, 1.2559961474715802], [-0.6023874308112249, 0.7044061219354117, 1.9096465537221048, -0.2904300949769646, 0.6770187380810133, -0.3027022944639143, 0.009377024498565074, 0.4846014930736327, 0.2150171775363063, -0.523932740163523, -1.820598254813208, 0.40826650917877255, 0.03173543231634326, 1.7466187648291034, 0.7125790896032252, 0.2894275540200521], [-0.9632535473192184, 1.521471930415241, -0.18041862082697074, -0.07055629200011107, 1.487316319204163, 1.0260980742754524, 1.3299115462516646, -0.2029852761078211, 1.968317440580095, -0.5322380213720326, -0.9228210911217579, -0.6577625376558645, -0.39370090111706807, -0.9840787588460462, 1.027946557446593, 1.4851577585133544], [1.335773043898018, -1.732481398109802, -1.8815769134919687, 1.0390058518828706, 1.1535487392839163, -1.4646274998862263, 2.4280650701904185, 0.7460115060344562, -0.9954101333171295, 0.16019777206256355, 0.7695249623466395, 1.3070694935808287, -0.46511255242761995, -0.7902501831876071, -1.4105634271156562, 0.5655048142078184], [1.1851309460964992, -0.8829805754451191, -0.1709437027198132, -0.4532164992822516, -0.6649681590505799, 0.7687482612433338, -0.5878948395136505, -0.42914797790953263, 0.16375081373309977, -0.15603627060513042, 0.13526623270678567, -0.7857506984105899, 0.36858164243594765, 0.6416973108726691, -1.9590888492613996, 2.4310819025419232], [0.011499854862522953, 0.2879594075778789, 0.2618952256290803, -0.1381213424600417, -0.4801719254782972, 2.455251413983744, -1.0147208774090986, -0.26742382626241, 0.005824906399413023, 0.22394961687192913, -0.055877393323356096, 1.2474031494375943, -0.7050840680871248, -0.8153264387664768, 1.0641313527049403, 0.5574046548744606], [0.4572076722162107, 0.9680527853120742, -0.1405511178368849, 1.205444651071243, -0.3972504627081216, 0.8555351955169864, 1.2344922858873326, 0.8796929406723998, 0.9588614783381252, -1.8199248110267303, 1.0675441645182793, 1.251601306000656, -0.8807884107472316, 0.38755275377460013, -1.0974274358233387, 0.8165453270201412], [0.1433054247196192, 0.12999124747043592, 0.3282530467539801, 0.4104843205991775, 0.4488580024078969, -0.033858371048748614, -0.16669895590096756, 1.11523748640444, 1.2256377870579438, 0.2561443061655177, 0.7197427620125327, 0.029655406098042764, -0.2988786626491106, -1.2157380433977323, 0.7163714978403369, -1.6875840515065306], [0.8683679904451674, -0.06227126843235791, -1.0598727714649414, -0.7001442095741635, -1.0775388148116518, 1.0250473847592732, -0.4282231839490066, 0.13721442419400318, 0.7298214721725181, 0.3620904662105443, -0.04400419594465765, 2.006573203522092, -0.3902131361365127, -0.4956112933284386, -0.19324319866975162, -1.3431012296322662], [0.02761284075537921, -0.7836298299847191, 0.5842606636447791, 0.26500126650461414, -1.0328950196359359, 1.839236964230418, 2.8955756080677837, 0.6434796463140086, -1.3807515040874587, 0.6194422741080277, -1.3893670172605541, 0.11175872905072863, -1.5935265389015545, -0.9926757898750108, 0.0781398473247716, 0.5657615892396592], [-0.3145037305809917, -0.9092041160581281, -0.402249897688952, -1.009973713680685, -0.7498872024641894, -0.1652457273019619, 0.5727104068559382, -0.8338766835061613, 1.175650134264343, -0.7723261974548842, 0.39818029688289164, -2.360459807033964, 1.438188722316514, 0.4832665480099343, -0.49002940184848526, -0.7547456137187274], [-0.46541835258580105, 0.24455467267440864, -0.13825308943675277, -0.16377358460254296, -0.23311443798404002, 0.16526584869906294, -0.3893731690898821, 0.40833562579272514, 0.7775153763874924, -1.4111312566131033, -0.23263811925440173, -0.3861798938975255, -2.8828202515842043, -0.3913038473132485, -0.5270807712641697, -0.34503568322301487], [1.2084679564336742, -1.4483216453994108, -0.6732029288675673, -1.0847115871588342, 0.404403395886343, 1.1230884139021307, -0.8826867963849069, -0.16603910426400836, -1.2105791680604732, -1.1312390942407389, 0.7913497236813599, -0.8064916659262169, -0.526789467481901, -0.5324479606208343, 0.2534864157622303, 0.382022495161072], [0.5302721402134593, 0.34780832584530236, 0.5061367622266499, 0.9807224841719091, 0.272221633538858, -0.2590537747989294, 1.010472143417392, -0.6307436742836391, 1.2528805880313507, 1.3773093818209505, -0.23956909146877076, 0.5452558619166568, 0.12815206713227315, 0.609944424542598, -1.4947252651057519, 0.7836106792033464], [-1.5418328102430203, -0.6122709317634718, -0.6321922494398652, 1.4202113954069195, 0.3737036676103855, -0.721830089950312, -1.5115433501700497, -0.9380012365632556, 0.3701863995403481, 0.1706140539684963, 0.08976485409139495, 1.2107218116726737, 1.1772277613771611, -2.0893318997398156, 1.0606559908211335, 0.5246098461601085], [0.8046989699685411, 0.25955657798487847, 1.0485672152209498, 0.5293725705054998, -0.620619034725463, -0.6752448619470859, -0.2582047193216445, -0.17658676755404878, 3.256681498437225, 1.0314141210000964, -1.224116725844049, -0.16707612084690016, -0.1535175636089246, 1.419124166082301, 0.2578750899838988, 2.3454893773914405], [0.7113337566799217, -1.5313433314106277, 0.14491319610234865, -0.7137990856769615, 0.2162398539212613, -1.1621608545835354, 1.137491181058171, 0.8393377763413983, 1.62560945335288, -0.18711147096790226, -0.590006697863984, 0.785803383510333, 0.16654261974479917, -0.35901645515767544, -1.2763290957523643, 0.7303174053316857], [0.8663913498724197, 1.120905076782343, -0.20020886534836396, 1.4500807744896878, 1.7355593240471463, 0.5704546523283202, 2.368275005445923, 0.8519582663516325, -0.4194258222948686, -1.6856455045761367, 2.487345918387378, 0.6565679670974068, 0.7959040586334863, -0.18710554997160728, -1.2919473745237353, 0.4225028386175392], [1.8575929726152847, 0.12515832413772665, -0.48608336512646394, 0.9947772207726505, -0.247855506112476, -1.1203497769987192, -0.029368077260225077, 0.2642132683067857, 0.4540081219935563, 0.6407666876640207, 0.008658400254952663, 0.15872413882868747, 0.7458673729480823, 2.2259143187067094, 0.4907068753668095, -0.6349019236101713], [-1.7121794535034056, 0.6243447272535604, 1.1182637009014695, 0.24512050526380094, -0.30134215216789684, -0.5927667833579995, 0.4161103935477657, 1.158134228238972, -2.6525100915146327, 1.0564195654324018, 0.2575111009390637, -0.8532055120321497, -1.3021093002272128, -1.2881570827937843, -0.026396405228502395, -1.245664522558752], [0.8919406739897656, 1.5437345158352558, -1.2692952025808888, 1.7353910063304372, 0.7668279799027522, -0.37291645303505466, 0.6113683714888074, -0.8027302721030497, 0.9163181283804395, -2.126282525887925, 0.8963987800976924, -1.1454403355485152, 0.4784220325945975, -1.4571562253943289, -0.9102419609139906, 0.41688785713980014], [-0.14753525595698797, 0.5611621922333714, -0.0491188856645827, 0.32471936737644624, -0.04994750280464542, -0.48475124130985503, -0.6682681086558475, 0.15794324735903723, -0.49040785680980875, 0.09068919912778411, 0.4116864929240758, 1.2609810925914489, 1.7304760429427453, 0.5182469873297535, 1.7105380093379632, 1.7213774141902427], [0.6196157508593727, -0.10222076411027395, -0.7155072918230473, -0.21529173750999284, 7.163719090421911e-05, -0.33031811206994344, 1.0046135812966441, 1.7195261416063898, -0.5179612408732478, -0.6780825406439, 0.09726437368569245, -0.7061969147307482, -0.05804718221368172, -1.142921496013423, -0.8746126583907446, 1.528845540942537], [1.126416516950307, -0.14753194868533376, -0.8467493422026285, -2.9520602359059764, 1.3461062933626706, -0.4995511137940317, 0.5349176607624507, -2.098322811439897, -0.9868838032498908, 0.6375396080332975, -0.030867688213868892, -0.5095046716124767, 0.5517838159493916, -0.08101887054719543, -1.6470445152862543, 0.4544773238128795], [-0.9221454020060861, 0.27750164172973296, -0.484197559640273, 0.13841407758868188, 0.8791709968589336, 0.4519099652079713, 1.1228231176599157, 1.8631619181396477, -0.07067692572847135, -1.3653860436009266, 1.181252502912879, -1.2098012308166224, 0.11853123695929431, 0.011034950336064477, -1.63522268914062, -0.3829170305528925], [-0.5137913243915165, -0.8543813477748379, -0.061927457515126974, 1.3989770141849722, 0.8255437066379111, 0.3846383271280958, 2.7209560780284816, -0.7448892240869023, -0.4190142737849248, 0.43805648427596205, 0.6278297165192358, 0.7586045481583376, -0.7705871292025308, -0.299553695694452, 1.014708481467021, 0.07420672146171033], [1.7421002139841193, 0.8684023936899723, 0.2150013478137203, -1.2679649792148173, 2.4839864920745867, -0.9215908536126788, 0.6277129413392109, -0.4490822221866095, -0.22632524680673363, 1.6967501777624865, -1.4519385322532603, -0.9583824993405783, -1.5492088727424322, 0.8125252309800997, 0.67285248922134, 0.12144169898011235], [-0.10964972217375414, 1.2522484839229306, -0.7918651202726171, -0.478714314518453, 0.36840220059209483, -0.6999835950950913, -0.613555469582888, -0.3566728616313398, -0.7788063913866038, -1.517701636517898, 1.5712473832027098, -0.2953345294685191, -0.6556838988999959, 0.06721431612017903, 1.0541249155366774, -0.8055437680703624], [-0.39650115776640843, -0.07708874145701153, 0.40815218530891073, -0.15464710719011462, 0.17957731797504772, -0.0037516555019229503, -1.5068128542943782, 1.2593307275582466, -0.7669719133476824, 0.7365033972575766, 1.7205394187283536, 1.0027650812369155, 1.861316099603442, 0.6429997679194989, 0.7018603091849859, -1.1452743544550188]], [[-0.024438017027291106, -0.9290727643292969, 0.38841062837253776, 0.8431431511360917, -0.12372003954005374, 0.13043985331389363, -1.071900936420985, 0.8911185274287812], [-2.861116416260142, -0.5382470702155046, 0.3981816021487886, -0.3372862455404584, 0.9261927537769157, -0.1135574180974886, -0.20914006958661568, 0.46706044141944486], [0.8045061933134496, 1.6878797025025352, -0.4737474290349839, 1.1810492752662893, -1.4621535393952323, 0.44322312886737175, -1.651940718413108, 0.373060323703115], [-0.4374870491476756, -0.9666067438603402, -0.6851631214482464, 0.7626813999993456, -1.8159568476920833, -1.1707394348110227, 1.3210149361682777, 0.7657422217753855], [0.6075805731523659, 0.5476563299194485, 1.1860456111158226, 0.7799444643513017, -0.08256982749928912, -0.17683837222111057, 0.9937373863609559, 0.8362095605376035], [2.108472087880162, 0.5360068080924797, -0.5401383284777421, -0.3539887977395288, -0.03627364698978869, 0.697829580550881, 0.36664151367402903, 0.9796809670413059], [-0.35107601817463024, 0.11087333145791868, -1.7266400462780334, 0.47407990460127, -0.7888446963901781, 0.8443170200286211, 0.14146505272111334, -1.4384880211321527], [0.7708791438546052, -0.4036684284260384, -0.9222451030500286, 0.1423828991147079, -0.2439707147816758, -0.29464199695602505, 1.4586664359198185, 1.5081554787420801], [-0.7792191225900301, 0.4062361270049279, 0.022217339341261168, 0.5503572769159659, -0.1821052048343882, 1.081755233005505, -0.5380032229715964, -1.6819685793646035], [2.0208639544593514, 0.03758514390476692, -0.33824736746433703, -0.1428207835127807, -0.796181373004417, 1.8932625251758892, 0.1282363994141433, -0.011703707794776972], [-1.167578370133562, 0.16377121814002144, 0.27840658043407035, 2.1594401434009987, -0.9093031068666882, 0.16995767983900345, 0.026696285505314683, -1.7037495082163983], [-0.34884752124647656, -1.4972827579091206, 0.8230017431002797, -0.058861805566585, -1.5606080527984414, -0.2771634896184984, 0.7856101893196553, 0.038120750566714726], [0.6195669979032008, -1.1886658044686043, -0.23721210274428683, -0.0627057375539292, -1.9241754621747509, -0.9134979413309351, -0.835773649785673, 0.2079563216465998], [-0.9797088467764974, 0.4682506709504359, -0.7662984802680709, 0.0014579766116179283, -0.7865246957808292, -0.4712107570590541, -0.37971884224172414, 0.0858354128850393], [0.251831726650485, 1.5994149408332416, 0.25161712713859274, -0.766020330686938, -1.4064142127160235, -0.15663082875903542, 1.357879043562776, 0.436529864147567], [0.11142905039805844, -0.8652708240202682, -0.03548555302392172, -0.47509559402352813, -1.137131324467584, -1.0011017329544223, -1.3773395816231944, -0.32944344275554627]], [[0.3871088320352278, 0.4598669636122509, -1.0483386851104626, -1.4768282525461944], [-1.090229281635987, 1.4123287292550617, 0.31360507242960123, -0.6706193272250888], [-0.3214767311588891, -0.3190023344671264, -2.335104660352534, -0.2962517074575347], [0.3482388084476142, 0.9556954132641867, 0.01387598467838746, -0.8500286876610372], [-0.7645349960542229, 2.8481589567428034, -0.587443846430432, 1.30096243913715], [1.4448846363875019, -1.2748937994783378, -0.4069361248570781, -0.8216559585838239], [1.1300600092323283, 0.11847802640903278, 1.3294486991116197, -1.0200483202548807], [2.1644411536405, -1.3478446191106088, 1.1945264132338895, -0.2827385272145821]]]"