"[[[0.7784734339777588, 0.12822644119809845, -0.17514642248571372, 1.0943739099648497, -0.7426311995029116, -0.6993336284759255, 0.8347284839589422, 1.1323564436169464, -0.6670761222463313, 0.2625586633907997, 1.1644413460455372, 0.2879689421265657, 2.274159140111055, -0.035992551173736835, 0.37359983967982907, -1.602704612615297], [1.417297658212299, 1.2913576771222093, -0.5174451687317554, -1.2562508342343277, -0.4163299879117341, 0.7693971271523871, -1.7219758124953015, 0.5004465324596615, 0.37467448207768395, -1.395757984359497, 0.637955939778947, 0.5295617923902307, 0.19127333940427707, 0.06427408083402622, -0.7527613202977425, -1.532917945427598], [-0.9941735697413526, 0.7114295438423728, 0.34819824212337525, 0.5177412662116088, -0.46416355952841926, -0.8967225698319131, -0.9970650793111092, 1.0123824720344152, 0.028233945313077522, 1.4770547656234518, -1.5586418398212298, 0.596200020594267, 0.6408006278682137, 0.20551893361760737, -0.27068931423489545, -0.41373487790060454], [0.5451003715412629, 0.8386503298203013, 0.68932399764725, 0.820675188226775, -0.6327062142458261, -0.8872062173064087, -0.2033910141848081, 0.6633378963390062, 0.8429332504458497, -1.9959651985609952, 0.3725218484086706, -2.022917037400591, -0.8711113641019405, 1.091111828318346, 0.31181046531967205, 0.5474531600555439], [1.734620771213021, -0.5731422869697153, -0.17752863637701735, -2.0355353937080025, -1.2396824023324464, -0.2116414838413423, 0.6090690473574458, 0.2873074796570105, -0.15679051659073978, 0.2302780590610397, -0.22940041395875918, 0.9173343676383222, 0.35783223999287905, -1.5680771321889726, -0.25210732455441576, -0.8627888980015929], [0.232551939051732, 0.5516493419457095, -0.6155087929439674, 0.08332089617456528, -1.0225360843276237, -0.4547810030668151, 0.008549340939327658, -0.5620905997445955, 1.553119211542041, 0.19880238911454506, -0.323532596142107, 0.08745099971833793, 0.5056324166030643, 0.5326563760241099, -1.1538296302474684, -1.384517928663832], [-1.4514693865921187, -1.2103498483725559, -0.09825161548940155, -1.9069056710069352, 0.13573192534381012, 0.6588561559402132, 0.17031222890734987, 1.1901868614534739, -0.8556070077201174, 0.06124184156436266, -1.2861372311783326, -0.44913156550075617, 0.3162998163510195, -1.5990112398246714, -0.35519320017135136, 0.5453643800931606], [0.3540263382054782, -0.811212299880333, 2.279673130464162, -2.046613635096675, -0.2623868966052909, -1.461543013189022, 0.75335160866374, -0.0014179213496931218, -0.04840084895925491, -1.5042238876870977, -1.5546330411174523, 0.6898048037709335, 0.019875053421227903, -0.6305444806354693, -1.3090647942356963, -1.517731852859008], [-0.8683621740237026, 0.14873188394200534, -1.0130952922594492, 0.1327167188832397, 2.419406792389568, 1.2158891364710125, 0.6741084660810385, 0.15563954294265753, -1.2366532664010157, -1.0337246132283346, 0.147818520510115, 0.039752120287634626, 0.34704615710138526, -1.7485852094011163, -0.5264903923302672, -1.0116296728261984], [-0.7551479689310575, 1.6410419840580566, 0.8789192945935858, -2.5221538524442138, -0.31129584279528405, -1.5869262216139344, 0.6940566152353033, 0.6722414956469243, 1.3021228414688033, 1.406038461620818, -0.31994536345129354, -1.1809907566687359, 0.6350030516358014, -0.8126384771115726, -1.1427478813604246, -0.3513783414054958], [-0.42826172287061304, -0.6056426485648355, 2.0925262967958074, 0.7094427196582065, 0.320719736307366, -2.168066565006315, -0.6137093515348315, 0.7459935944714458, -0.2045973545491605, 0.8153674073622391, 0.762923029243377, 1.8585693852788232, -1.0461988720019786, -1.3231488289145636, 0.3976860954670403, 1.561535376402199], [1.142361612658063, -0.7573702056696162, 0.19180998658732504, -2.280218654224037, 0.5732812913217931, -0.3705176869186551, 1.6881013124897384, 0.5070433684258991, -0.3840031379652915, -1.3948981744164048, -2.131125548809131, -2.070129768902499, 1.004915871265052, -0.6634674004697166, -0.8779364070144203, -1.4986447225999384], [0.13862140581373084, -0.5880708338173404, 0.5450843246591096, -0.6876613915531815, -0.017344607528832087, 1.7835077447296055, -1.035356296019665, -0.6980828326562386, 0.197536402032447, 0.8234369242184529, -0.7147605312614566, 0.23220389090276614, -0.03014451101799896, -0.4539771433333359, -0.518806752525407, 0.6068484514874031], [-1.425028676465912, 1.4182989208893597, -0.3258073943628157, 0.5932423676954686, 1.6971801380445823, 0.588746693332077, 0.652277800363861, 1.6225703197201164, -0.4992957192854296, 0.23549232055208025, -0.3408621252672859, -0.8693852861498512, -1.1800828624789257, -1.4265460563893941, 0.5482155748431695, -0.47496337472799444], [0.7985075269606767, -2.503813102562793, -0.6891600310887205, -0.4002171007345644, -0.8127250631895714, -1.2099970257789285, -0.16124267332955713, 0.5479317244338011, -1.2697134377885118, -0.2548844423880781, -0.45644409217816106, 0.5317191560985474, -1.542799009074985, 1.2520197641759034, -0.019430008815453304, 0.06615998406975516], [-0.1764897454847029, -0.41957769352714863, -0.8028960177991662, 0.775155094120591, 1.6218628241987947, 2.086092905357837, 0.7902612224815032, -0.04860115240339596, -0.6528047812014443, -1.5198788689482725, 1.388518450017908, -0.07811114480542938, 1.3890499974606831, -0.04061197779221338, -0.5004950400817079, 0.9572585819408085], [-0.08293468377400338, -1.7553328329500528, -0.21311874322870328, 0.06693441358649467, 0.3301726555771325, -0.0894750920329281, 1.4279995097346774, 0.9704489238862295, -0.7649756292834894, -0.1068901451424576, 2.168880218383071, 0.399589192025096, 0.8085662402911454, 1.8693282875135442, 0.10322609240335516, -1.179455393586629], [-1.7347490979191997, -0.0925101972444351, -0.6673143813522409, -0.21226935883821976, -1.1437506203840893, 1.385820569843789, -0.5151943527772392, -1.061600029520763, -0.9533301904001147, -0.5156425503406727, 0.20128589583175607, 0.48261453493891615, 0.5768141730280452, 0.3185045642019386, -0.32721046199534126, -0.6427866346606653], [0.4351416132782291, 0.7876873696524366, 1.829238095729182, 0.09024803360355957, 0.389142651084545, -1.919143196683091, -0.40130713192728856, -0.11779602010758077, 1.0491678883332078, 0.8527582607077693, -2.822976668770498, -0.12688548781095627, -0.4338994484036049, -0.4660790872690201, -0.5312963126169928, 1.3056547682658928], [-1.3459426855481218, -0.14588682371970998, -0.22769308803510993, 1.3896679796559877, 1.558533295119966, -0.02586073212054486, 1.0045516212171843, -1.1075746598827971, -0.5014072783139963, 0.4867674777978054, 0.14030598782028092, -0.1109498946211001, -0.22447927524664693, -2.115111831111759, 1.0213470243799536, -1.27102942528098], [-0.24219916806395497, -0.18491308418033311, 0.549036728188597, -1.8311220881662054, 1.2197546387923748, -0.2709680114820391, 0.8534901267808749, 0.4736058815645002, 1.5508009195154355, -0.4760037968281588, 1.9837305328191295, -2.394430285928714, 0.0033069000925455777, -0.9850079245825895, 0.09630165157028121, -0.7360450872938412], [2.2552790775772134, 1.6582389073282284, -2.062723415979234, 0.005263599123409875, -1.131280866245559, 0.2105364588010488, 1.0048601388125158, -1.014442563605335, -1.6292581074573727, 0.6511175277017018, -0.7333784559077805, -1.01561001897751, 0.7651845813419118, -1.0861321857704944, 1.291609642231823, 1.2841407247399972], [-0.40446131684550973, 1.2657814256282394, 1.106916658999206, -0.27865993126332445, 0.1260763924410815, 1.232318132024125, 0.2507169395595267, -0.7670190226390156, -0.8659783851110314, -0.8482713945029058, -0.4749832685065973, 1.6828292388723247, -1.1389283783403117, -1.7319702586345311, -1.231874637356877, -1.6466976987250392], [-0.15205076360209763, -0.01156444655081132, 1.5833118561476296, -0.5990222031698792, -1.4914054455857393, -0.36040718078918405, -0.3804920992648996, -1.7070354317119778, -0.056293332680021166, -1.163336432084119, 0.9143952567211517, -0.6500710869956567, -0.1097734137622604, 0.10425664759459237, 1.3885017737746452, 0.08274349026471023], [-0.38572830954927473, -1.2659947853722748, -0.11477188018080735, -1.042207268525528, 1.1154907874730786, -0.25387810488146434, -0.49939317778150055, 1.0790563740432662, 0.042915471968116355, 0.08655160953966136, 1.356873105653104, 0.982199000937468, -1.9836717585410462, -0.44683239141601194, -0.7512337500691172, -0.6189455307662942], [-0.2128081010506249, 1.2004944479572215, -1.9673977282884223, 1.436858959184444, 2.5030114596364124, 0.6171584590669839, -1.246906174517706, 0.3585712620222761, 0.8922701056254799, 1.4993443046652135, -1.975423791630402, 0.23236720557906126, -0.6034228597867394, -1.5939792137703472, 0.8182210399658428, 1.3403449159007892], [0.7817818567757127, -1.580998063857301, 0.4394024402724415, -2.4481609509417823, 0.5603268876794338, -0.1498439727025003, -0.5318296542375738, 1.4686307508597976, -1.3310080342109076, -0.09324169408803608, 0.2801251859373122, -0.28020742804669924, 1.099031932312468, -0.9887164346710167, 0.06815104811387147, -1.0704362751427021], [0.7661120506043209, 2.3043844321411924, 0.7177750702852035, -0.10053639600653828, 0.7874620685597961, 0.33520255718512976, -0.4805952533268729, -1.1897805064207208, 1.5338789136257478, 0.0835436915283037, -1.038382788889844, 2.20980302820063, 1.2882890709777457, 2.325854945704954, -1.6451999704452667, -0.3080297951533433], [1.5931696267706443, -0.011782092399700303, -1.8706218943589281, 0.8679748056852654, 0.20718836537843544, -0.026172159690256446, -0.6983291112492945, -0.9963841984471097, 0.43032450569513414, -0.030052636967734924, -0.6351475654977212, -0.7783076221292886, 0.5634553373744055, -0.08358804608434928, 1.3217135163892977, 1.1993397458974295], [-0.6241544258994678, 1.823906589111808, 0.5915654739430177, 1.5665605542345018, -0.46731867559601575, -0.013827893642699287, -1.6891419236619227, -0.8973902069494101, -0.2901513221480339, 0.8830376496615219, 1.0347846816365518, 1.1201209532468306, 0.17419630201725386, 2.1060247876696807, 0.5547077968084333, 0.36939819866833895], [0.7775517508102702, 0.8452460092224087, -0.5186170184212425, -0.12708361774273486, 1.6589793460938869, -2.1235556021345783, -0.5413583562934227, -1.1527177428216449, -1.547173233708942, 0.2660439394577035, -0.8953421563938948, 0.6963339604627735, 1.4174702231820382, 0.2733047926933965, -0.05001613396185281, -0.3640329413757473], [-0.543607795741956, -0.7197942592154021, 0.4767160940522461, -1.0596984874731497, 0.9385395777883924, 1.3355966838617372, 0.7936565292872437, 0.33578380251541384, 1.199245310760663, 1.4215901838880514, 1.4053303969128152, 0.7703414144633923, -0.6040220138639761, -0.33791767963776925, -0.14738292837759348, -0.044696911512813936], [-1.145414408677633, -0.21788763209941003, -0.05240505304445641, -0.21765660031537548, 0.498002217204607, 1.1009977942860578, -2.5567241120142397, 0.48308813522585786, 1.033084170929037, 0.27131715236401366, -0.3996551758309149, -0.057789829703496595, 0.07674557264458133, -0.035541081254246036, 1.0053484807267439, -0.7162188598931108], [-1.3794353970951196, -0.12684874029439303, -1.4173075076094004, -0.7529028464210716, 1.3381815870143146, -1.2508582704704956, 0.6948127537989373, 2.211993415803052, 0.04557269141488486, 0.6118637783135847, -0.7024078724884413, -0.2968412307989582, -0.38626426766587085, 0.831147325566884, 1.1940840881812216, 2.1242844289504035], [0.3091854858127477, -0.8888976759811752, 0.8012430381892401, 0.8718795688942335, 0.9649907508191126, 0.03694130190425642, -2.5814482422699627, -1.3311902571648582, -1.3136138476768708, 0.46566425839770254, -1.4626825573827535, 1.0002115669681884, 0.2609135041320835, -0.10433607425316307, 0.0973604320094799, 0.8873100377312242], [-0.504842778662231, 1.278926643537694, 0.35702213121371573, -1.2176343840243578, -0.9825013659313457, 0.6556760270722655, 1.1473123644413017, 0.46121746047847206, -0.9187396417888071, -0.4749112994385888, 2.033167763514135, -0.8514919190304322, 1.7408757952629674, 0.2801585124751878, -0.8161411166307093, -0.23578801016310957], [-0.8893047257333742, 1.3570729851841863, 1.897257264251282, -1.000050101394381, 0.27799725089115657, -0.9126289227753208, -1.3200792169089528, 1.9445878145192268, 0.5800464538216846, 0.2656008983103813, 0.9787949331253991, 0.9206861774033512, -0.4171032279421184, -1.8907108986740857, 1.5906943709439998, -1.0819085416411398], [-0.16846847338063392, -0.606398411615393, 0.12182916831633574, -0.5724272326325002, 0.3101733697397786, -0.720173511564429, 1.2247005595268914, -0.5339211630971543, 0.5131524157831068, 0.9130276901795501, 0.4672038083630471, -0.6463544606337709, -0.4979335996913886, 0.12174271115157502, 0.4322240465948036, -0.05284060863106953], [-0.799901551713431, 0.13432243016476522, 1.9582581681729765, 0.8136538693436219, -0.773557862920344, -0.6213331369459136, 0.03075048236666096, 0.49506052337275314, -1.206257604965213, -0.39057305242606954, 1.0042553140927903, -0.04543073985321959, -1.2970120348202219, -1.0024302383823414, -0.9472814232132224, -0.9221922275428257], [-1.585940396577252, 0.3503534972955993, -0.06995773524873113, -0.2601115551056962, 0.8858867388908516, 0.7382881296348318, -0.5643242962594175, 0.8018351190095411, -0.1334839949031924, -0.7018332404873593, 2.8715346494590617, 0.1795603780466394, -1.1740695706886672, 0.3819517406259265, 0.1117572370853474, 0.4317885292949261], [-0.046228918632112107, 2.8589450787595814, -0.3650880702718157, -0.28304972721737204, 0.13492667747322515, 0.4082522521898647, -1.2295631688747815, 1.4245495406198703, -1.1329798706601475, 0.1825943234749779, 0.3522321815981674, -1.0730760883501171, 0.4620620428839956, -0.7869196400957326, -0.09956942016433812, -0.5951900869078637], [-0.8373502835339748, -0.4102735459574402, -0.06736615613161373, 1.3361179365757325, -0.8586362347462926, -0.555987276829513, 0.1083123734657592, 1.0352305773481407, -1.1518281982656546, 0.2168501450429591, -0.3234038543174045, -1.1724565936303306, -0.4414093439719105, -1.0697296772034344, -0.1315884426362555, 0.15213855891852077], [-0.03724523215652949, -0.5487032997305357, -1.4452075584498116, 1.7088779426316334, -1.5010954218981436, -0.8894567127662222, -0.010880068273894813, -1.8095207748504052, 1.1334496972809998, -1.8773712982194894, -0.11050535120154967, 0.9365451702446, -0.5702246927626271, -0.6332578505546534, 0.6411322667863083, 0.1308008078779745], [2.293061122294665, 1.6186048024658135, -0.03505786344256246, -2.271352270627021, -1.143083048275663, -0.4232436777034292, -1.0479243342519666, 0.46192505885200646, -0.38932259151109494, 1.738714449747546, -0.023897661963287475, 1.364493611268741, 0.08550409460155876, -1.2328282885464792, 1.2548637413593848, -1.024659722981976], [1.4621540443280872, 0.1664389874936425, -0.33271276205277456, 1.8689208341338301, -0.6496712342769644, -0.19264938011590713, 0.5739171631106417, 0.010760030948848177, 0.3008923797851161, -0.48174837255128106, -3.36725206717565, -0.5768375375636497, -1.4132228418788102, -0.17354271010730585, -0.9473178837763453, -1.038597483477149], [-0.4043583389996015, 0.0389686747687628, 1.1360627535595171, -0.6394187175765483, 0.6042438072152364, -0.3386425960781523, -0.14280145200561437, -0.5586258614157873, -0.35662898018610845, -0.14293810608258947, 1.4503410833409622, -0.5946605635974004, -0.8970579680768486, -1.5550470597869883, -1.1570899321089385, 0.9505429742955182], [-0.20179060991332312, 0.05899342220774381, -4.185602309960079, -1.334282303214975, -1.2104377658426158, 0.6175784913714263, 1.4671917710032008, 1.325661950852411, 1.046581469471256, 2.1573567513426943, -1.0099695806164322, 0.3254446065354214, 0.8212391755408484, -0.4042650061883228, 0.40111565280148115, -0.8975441321004279], [-0.7709105062887119, 2.1422671939477347, 0.3785896498208072, -0.04175976594123484, 1.3884778733775354, -0.37561119237953966, -2.0626814573687957, 0.2198021925961645, -1.0646697502501457, 0.5164602530289214, 0.8596513438924452, 0.49435453247085875, -0.10307361905264621, 1.2207363025101707, -0.8381691310642686, -0.9595084411601218], [-1.8447733154684673, 0.25423970681553326, 0.384390391868527, 1.2054811049874223, -0.24738101412785132, 0.012700071596987647, -0.15085442741262264, -1.3913788576887278, 0.6607203036584077, -0.671210616375833, -1.6722008308193212, -0.741299728504318, -0.6201320070678866, 0.7523613780971548, -0.970679121337576, -0.2090657413907665], [0.9497718577760637, 1.2080601210686397, -0.2917884486372682, -0.825495118597043, 0.6316929996889806, 1.219089618289686, 1.23887523453048, -0.07469093345528383, -0.7785720079105732, 0.3413811602394713, 0.7500900364946764, 0.09595680984803379, -0.9382993683699825, -0.06270810241448314, -0.4179916090690371, -1.928849543011075], [-0.507136501870497, 0.5657403698463992, -0.42230139199155703, 0.2947002503197532, 0.3143345267045277, 0.24717293923057712, 0.4609927078421133, 0.48923353008457, -0.6478583914933087, 0.0798130402068271, -0.4070490767083392, 1.844237950663763, 0.9957281206949865, 0.9934575115782256, -0.08614232183440436, -0.20746445477559183], [0.289587075959785, 1.5735504229656978, 0.199785754900134, -0.19747982021097196, 1.0511225342719015, -0.277875183050326, -1.8908408025163101, 0.6876204232211484, 0.19972616908547725, 1.089416750276913, 1.4813585965285996, -0.690784414481995, -1.3524133649238281, 0.8065213205899836, -0.39796265497840866, 1.2734607590722868], [-0.9122945714834216, -0.707535921915298, -0.20944571565375403, -2.415601848830976, -1.8061970115850912, -0.8245669138896317, 1.1420679479136426, -0.6618430114304992, -2.1296442030908027, -1.0978619126483593, 0.4723390538522156, 1.0077381437980035, 0.8255371188898604, -0.3571759823282384, 0.8131502773954072, 0.6307820178234222], [-0.8681202906616673, -0.11644191328689062, 0.053659520786274346, -0.6380882426279106, 0.20476455505118044, -0.9407196118442419, -0.08654980395855078, -0.5407614616479144, -0.6714689714319116, -0.8279354712132871, 0.07142056299774327, 0.4257868995995639, -0.6111913261985116, 0.23235268140438614, 0.9794177910781785, 0.2700259931979498], [-1.2150138670421164, -0.14926098355573414, 0.3779231974713738, 0.6149147355501576, -0.4124725991461488, -1.4042959608121515, -0.7104187158786156, -0.9885962551503509, -0.020783549574824024, 0.589147251401971, 1.9627862794161104, -0.24935730457677704, -0.32057126814597114, -0.07320777261684634, 0.07578173967162793, -0.3719784031729982], [0.636210513847867, -0.724012906870473, -0.21403358651934257, 2.178608390891952, -0.5480416341496527, 0.5467526732725505, -1.8978915350565364, 0.16266752931565892, 1.1423748442431854, -0.8571806461193577, -1.245345165207329, -0.9921911224644219, -0.5447008553669177, -0.5252966552114998, 1.076588472342479, 0.3190493270301628]], [[0.9789706792862941, 1.0808707383959946, -0.7277668041063476, -0.5520548697643489, -0.059202900311089345, -0.9019905191256468, 0.034856812902496405, -0.8180789032157219], [-1.1459686497274995, -0.3239984878172532, 1.1386277439570127, -0.4410753306375527, -1.2716403976989543, -0.8416428009519201, 0.017704682284304083, -0.42718508988893983], [-0.4250337468121484, -0.1690631572890713, 0.3014079412439558, -0.9619688977534059, 0.3627004405194121, 1.3103187404681254, 0.6512210642843754, 0.44352536341523574], [0.5167194716474143, -0.5629406099854088, 1.3306359902928064, -0.40583794361643466, 0.6473777282662285, -1.565907618914267, -0.3335317383666023, -0.9641143188083554], [-0.936043850966163, -0.9384430732121121, -0.2205776645736716, 0.5317268984892802, 0.8701133590847703, -0.23602429220636817, -1.056533300253213, -0.4219307285792575], [-1.4470787113938726, 0.4134912050714308, -1.7456600197355387, -0.055529492010204, 0.6352986285977992, 0.0663136497098202, 0.8185535543384869, -0.2752699467490249], [0.0851659223527165, 0.8080873286032055, 0.07763916336150782, 0.10731794139288096, -0.5184619746473834, -0.3363209655904077, 0.1700836126679929, -0.12308778880858007], [1.4291622792547267, 1.8983136005431318, 1.92599179124476, -0.19729488052533264, -1.7597545818128264, 1.550172929470404, -0.8888228130436115, 0.563589641181685], [0.46813286057515185, -0.9034777758261939, 1.2715307375272158, -0.277667494550807, -1.1113670523697239, -0.580733392178198, -0.8552063538324899, 0.38928296512557825], [-0.5076854222358226, 0.48316313911473835, 0.31819142616102136, 0.16573800727451382, -0.9800436109165892, -1.7402567331609917, 1.3829997001919556, 0.6172761412163831], [0.05304359467397202, -1.424208162871582, 1.1418128031169452, -0.974731572524575, 2.9615273883571125, 0.005423287681808744, -0.485832113057517, -0.486274315146362], [0.21950649213212195, -1.2522891450503886, 1.0671985130902903, 0.9494530087017702, -0.43162347612709684, 2.763714609612599, 1.295152085923205, -2.1197851187761776], [-0.2553370107413288, 0.653665309657083, 0.17801087365220486, 0.33250831709223255, 1.4819514139755317, -0.319780992963257, 1.6629151750719937, 0.8993443352248719], [2.2812135960037363, 1.2178541336897128, -0.2755783367672444, -0.7645081723665398, 1.1845556461065594, -0.5864315151898322, 0.33424523539850093, 1.3179979002763063], [0.1805968468026454, 0.4217990820407116, -0.2946554968239317, -0.2501010098763176, -0.46183169947886415, 3.231295805391956, -1.6249836143671952, 0.18842443473212495], [-0.7370923936561533, -0.5394444824520622, -0.08157738709838816, -2.127643175331612, 0.10278093014146936, -0.8712628906501717, 0.8368275440672004, 0.22458275256537602]], [[1.3822585813377886, 2.082066254994721, -0.07761632999875995, 1.8324555208850057], [1.4071906665946894, 0.6747990823524562, 0.23675994562357713, -0.9233736300703914], [1.2034771600143905, -0.4942980211612853, 0.22405118675300426, 0.18070998186110593], [0.3063577082509552, -0.13648897469048968, -0.692098856083292, -0.12249241059106958], [-0.7832656295177418, 0.7319474529800115, -0.7617698375150906, -0.4696829416316508], [-1.6658301034571894, 0.8674449557804352, 2.8748835037759135, -0.9717425996919061], [1.3517821772394114, -0.28123420669424387, -1.953214025522256, -0.9565910125753821], [0.8759264351935455, -0.5670590166952357, 0.48558972669380157, -0.7521743714272329]]]"