"[[[-0.10110532443816327, -0.7086186072732601, 0.5419835531511759, 0.7642332416450891, -0.8922723302461747, 1.4910308441263191, 1.7956301348989534, 1.9974724190598898, -0.4424643869790916, 0.5167488795635299, 1.338058191834935, -0.15126261009800906, 0.8715586939824982, -0.37773770834182113, 0.6978443780859637, 0.1022654365763109], [-1.2181385656781514, 0.16405802049062357, -0.7767235326086281, -0.4985229328157797, -0.6312461796365061, -0.5933233205854856, -1.8525271128024643, 0.6675461679828217, -0.5652085307972491, -1.277356907009369, -0.159797454836473, 0.3815991979229952, -1.0007378892017744, -1.0341343628875594, 0.29581535327019637, -1.3316040195306835], [1.5662959139476913, 0.4467499531527652, 0.23817529050716066, 1.9123435459072426, -1.5506670852895226, -1.315005138432938, -0.5892196592186268, -0.5093542813522164, 0.3487805330054477, -0.7821793945824256, 0.009306656240164607, -0.7312913385454795, 1.4964316669614448, 0.3391501127081739, 0.29258977171722256, -1.139627173363757], [-0.23631965990347267, 0.47100049962202684, -1.7324486645130974, 0.4959340092802212, 0.5625500749369362, -0.2886352277892897, 0.66697338440752, 1.4620842563008258, 0.39406705984701595, -0.44673284793491624, 0.42120560750445507, -0.18869176166827611, -1.3594404488345075, 0.3199128269845753, 1.1043867920774095, -0.6564520453216779], [-0.6462646745054986, 0.5238950374884858, -0.19131570551259064, 0.20059861471206028, 0.9583422397131717, -0.1301671819544355, -0.44419030330966097, 1.5075241882847594, 0.3005312892166073, 0.43363023176061755, 0.8987279011965342, -1.2991352507008818, 1.2703985345350435, 0.5828937311605213, -0.20015188174498186, -0.03918378872072568], [-2.1257692324576007, 0.9871173546053198, 0.01779078043184758, 0.5274888393425969, 0.9688832748347617, -1.8968039049651144, 2.218541926034869, -1.7474832260150301, 0.5471000352644452, 1.5108442445641905, -0.8138647793193459, -0.1497917134258955, 0.8735402136747145, 0.1096327883055759, 0.32566200335673884, -1.0052784114710853], [-0.4331246983447961, 0.9069473664435094, -1.6842530354006697, -0.08190295360383053, 0.7671515003230995, -0.9678866760252723, -1.2713680355741046, -0.47679455343643284, -0.628679370250564, -0.9750603935434189, -0.6798553045218833, -0.6209781352277952, 0.48511116026310236, -0.46002103114925047, 1.0699627342468188, -0.2665248367874832], [-0.5587290781808736, 0.4257070936471857, 0.4324509632157717, 0.7898433372574728, 0.8971357289288728, 0.6560834195513099, -0.5203900714450523, -0.9631116231431515, -0.8607662771562586, 0.3186736551206309, -0.2672884616010331, 0.2816103526751864, 0.8277163746490579, 0.7265446536824978, -1.2194914182250696, -0.0343509540305982], [-1.0906133419097028, 1.7894649704079353, -0.7969855067236977, 2.0650952226186847, -0.2840317837902433, 1.177504785099585, 0.7088742240156786, -1.3576625440300567, -0.06171482810757551, -0.803871567859215, -1.0589724441584392, -1.0895725417833189, 1.189171967951532, 0.2893136462532013, 0.8425078554656924, 0.4297349819291199], [-0.7109692449244666, 0.014923321025871282, -0.35813444677702677, 0.6767195228804664, -0.006730885710900131, 0.32711174058532744, -0.6119235848624396, 1.0639615750058713, 0.5054956418554403, 0.3324144084850791, 1.2681206046750684, 0.8949037596149768, 1.3992314477477217, 0.5252964629280216, 0.0027973368834367626, 1.0651854498507278], [-0.1606138030261209, 0.6250541397917121, 1.9644600554519565, -0.6419895350158591, -0.9702787074111139, -0.8688913884589385, -0.028126951820122845, -0.49919160842442456, -0.025701095047029568, 0.6892530924818573, -1.4415715217285159, -0.9553410283099849, -0.3823709542604211, -1.0913144800421624, -0.7308704484563376, 0.16586662520026338], [-0.19312348492258308, -0.8336960934916484, -0.23818736439802815, 0.9311458487524036, -1.9708155805876826, -1.4469016795435343, -0.30751295212777724, -0.3361783508341821, -0.5634483752807785, -1.7762195478190657, 1.9514847551842278, 0.8967380894980993, -0.38136280525718436, 0.7169166339163814, -0.025079423965350803, -2.182443727974165], [0.3400114052023972, -0.8474222642942119, 0.4123447397693837, -0.23898502578127676, -0.3049917431522046, 2.225606166092897, -1.8232634967781691, -0.1349509363384217, 0.5026422526931642, -0.34180861771006477, 0.6056737671496438, 0.8318460157500048, -0.21318331086185943, 1.6889568668696122, -0.29780398414740844, -2.508423769417347], [0.819135493642328, 0.3078766429361701, -1.4402425211960825, 0.2644693510326343, -0.5183264781495853, -0.92359146977448, -1.0451689831304891, -1.0862552518999837, 0.8293497088896211, -1.918089804639014, 0.5977251597331478, -0.3172536553651559, 0.46211300840112074, 0.21300502721835307, -0.006213132342247455, 0.020062290539096767], [-0.012261321560329972, -0.6728639755092956, 0.15183161136746204, 0.6874246223849164, 0.747565042170214, -0.876664913356236, 1.9838563067044663, 0.05072317507449526, -1.8501038164943029, 0.20934290679484385, 1.0426647456922888, 0.5204206569439763, -0.3365009795300776, 0.8247612940604507, 0.029022489424701276, 0.44669292942166844], [0.9866732152835115, 1.2261769571647163, -0.5186831258285324, 0.5815525195129082, -0.43384166548829894, -1.588508165190564, -0.8934411427320368, 0.3715273081955635, -0.6326069461688544, 0.7364534136051648, 1.2684353563239585, 0.46370043246066206, -0.5461237833243955, 0.49561175921611117, -1.5661074489234585, -0.255193896135433], [1.5360708738173992, -0.7745678161173669, -1.0968246769389725, -1.0975128990552072, -2.2245973029243076, -0.3384390217095127, -1.2758637673038689, -1.5716763462188927, 0.6989248046130377, -1.3324026928702857, 0.6940538314067634, 0.07957571986702153, -0.40125680544036063, 0.21722481571590363, -0.2861208876653266, -0.03972102839672995], [-0.04224453087528126, 0.35524793866087023, 1.3722179760137196, 1.2404670749082107, -0.7455900154414832, 2.0069088315236336, 1.7462303100154584, -0.7925079495925258, 0.7812412496091822, 1.37903548421962, -0.8808842313899921, -1.392307454215833, -1.709775418018737, 0.2562905104402145, 0.10027105179220266, 1.4919603663923644], [0.2854520725807057, 0.6726650018112196, -0.2925432636567691, 0.802426008908336, -1.0399607023660868, 0.8636189767196442, 2.0207431570182983, -0.21813478539135736, -0.8397407808667001, -0.3408340321324644, 0.8379152823120227, -0.08303389154879841, -0.15555481973217114, 0.4314225323845604, 0.2146166002118165, 1.1680938071958895], [-0.4270936972680337, 0.4018044433920477, 0.08064541000134794, 2.7394150478222947, 0.6395010053333505, 0.10977284979099179, -0.5117904744438118, 0.4061447453654264, -1.2454800882928974, 0.22928088661743914, 0.10737347399867557, 0.46608711593073227, -0.629891435652454, 2.1065992249864003, 0.5749496092762951, 0.7108306177535861], [0.2421675077725212, -1.6686914336932737, -0.04394897853340628, -0.11122402649010238, -0.10992120772933356, 0.6435900134496754, -1.9441920573528864, -0.5971947917324375, -0.6646221095503145, -1.6921071155351557, 0.32595866734552853, 0.5434216955769199, 0.18648144529256222, -1.101718762332067, -0.2307958232035456, -0.5625257437257225], [-0.3723128129102115, 0.05768453817268474, -0.0674623512246385, 0.5258079315678247, 0.3990914782729264, 1.6418691363206266, -0.7833319954138984, -1.3129753431896407, -0.4135142544665377, 0.7280104189247207, 0.7039103166664474, 0.753621526812484, -1.392461766150069, -0.05917731142303245, 0.6768209877901855, 0.4558937635018764], [-0.03257036292187119, 0.16808851429721378, -1.9163329699336957, -1.1726402032266257, -0.07191720954102651, -0.47410688007630797, -1.3681355871260195, 0.42485520231601714, 0.9070121405408015, 1.1750612570622652, -0.22372929411418893, -0.5540688703523196, 1.1573220750262412, 1.4822340251601098, 1.6297379135439198, -1.6522546370760602], [-0.44990750627933956, -0.4792494573062535, -0.5583968966023372, 0.054458644361878396, -0.3654965197142477, 1.1029620709892114, -0.9287722131098854, 1.923786902454687, -2.863475458516258, 0.15334276034625013, -0.8505298630079519, -0.6364778113171518, -0.10538505661543868, -3.050581814256449, -0.0021554472133320317, -0.3693103311036498], [0.388243456392531, -1.4761930578461147, -0.030170299042651026, 0.8797656261908644, -0.6526523330634357, -0.6471689476727137, 0.5716691590863663, -0.743976619303756, -0.9688831764085328, 0.4674540924323248, 1.148463694877375, -0.8131675297531198, -1.4758758559985878, 0.5667807228471854, 1.883224214439497, -1.329561383572767], [-0.8758204142807843, 0.5984572343054532, 0.24664547387430374, 0.038562643265177346, 0.7817981051077091, 0.9330881112114295, 0.06166883066065713, 1.3767288247078704, 0.2676735270521012, 0.983848410345902, 0.19560001641214558, 0.4676022293578405, 0.17076354287865975, 0.5328605949585937, 1.6865802360906257, -0.03127592680161347], [0.7655188307102955, 0.9329216475711294, 0.2978509624916107, -1.2142358256479693, -0.6568154888339731, -0.5481135653605762, -0.6628379348120453, -0.7909748023512725, 0.7931201011482627, 0.030380499208379055, -0.587360862034565, 0.10669095323350193, -1.9496970460261565, -0.20538006286982632, 0.897043431577975, 0.15937927895980078], [-0.9323818398540529, 0.5740256728222984, -0.3897449957512103, -0.5074752822770098, -1.3938028802842088, 1.2560125904645405, 1.88740107490468, 0.0905294402303666, 2.9190862650793425, -1.1398051153909579, -1.4665193600690003, 0.164746780922003, -0.7067280677079381, -0.49663742329837585, -1.193208695499888, 1.0031794428970298], [1.0151736883150941, -0.7148963749891436, 0.6694608141186614, 0.06297338362011583, 0.2930911830448799, -0.6498689235082291, 1.9117944224764385, 0.40187457450906244, -0.48804005912116327, 0.34670888668200206, 1.3908621320540018, 0.6626858161926507, 0.6719306709125371, 0.03683358322308697, 0.7014575119161798, 0.4495290137562956], [-0.5062885177733994, -0.2209756090133303, -0.6834727211277734, -0.7274128754653583, -0.18355219408240295, 0.4997916492653516, -0.07148227821126134, -2.23927491013218, -0.5567570033455727, 0.7368654901632636, -0.7725575009174896, 0.7615592388248681, 0.6194895379158981, 0.7128114538183601, 1.1684004594649704, 0.3396432436073275], [-1.4789186267546635, 0.44067639799440866, 0.06468411607894205, -1.076675834653025, -2.8719181644857628, -0.915728087537835, 0.20350933443027194, 0.6476883829579906, -1.3630349901505607, -0.7977593923180671, 0.4276342079774714, -0.1507030173511438, -0.1888311406585767, 1.0212909184264294, 0.9932787604420515, 1.0092329995183411], [-0.0038865699813604823, -1.2976754194917792, 0.03861810817478222, 1.9037295159656074, 0.7223484529459494, -1.5081673977892858, 0.6299930297199007, -0.9596611379350223, 0.05869096797487177, -0.23564334499990408, 0.23928079287394033, -0.03891074559085756, -1.348448534546068, 0.7539153926045314, -0.17554088094138787, -0.9850455998131062], [0.8008117418214677, -0.01969056516328037, -0.3805955263332712, -0.47754011610204417, 1.1479689310815286, 0.7411331552891908, -0.37397185208998396, 1.261181925486265, -1.0774979526529767, 1.2571914474769226, 0.07766708356838964, -0.8258578331977331, 0.002473790806802771, -0.20171048887067344, 1.7239479195298693, 1.756165329034184], [3.017561120937761, -0.5143531070646259, 0.20478143895090717, 0.6111629551122996, -0.5837293455680624, -0.3761211430079381, -1.1435700637853017, 0.5158921148524567, -1.2560429048042487, -0.5248688593574801, -2.6081167545671904, 0.3828467582425467, 0.787865445640496, 0.5904948915280959, -1.9745581238380534, 0.04607032202226785], [0.6252621875478497, -0.8844835949156075, -0.884031741132632, 0.4449262940821699, 0.467595736282157, -0.5339984010930044, 1.326157184026965, 0.6764695851396203, -0.6388714874144465, 0.7160419839172887, 0.4611696877930294, -0.4898953000373773, 0.002138029429279248, -1.347823220806591, 1.3342431978364537, 0.1167577521814705], [1.0590649729721708, -1.8933319667728983, 1.5375879996686788, 0.6706695200964636, -0.686129595635385, -0.7548731714680864, -0.28548388788161905, 1.841226182161659, 0.1488876588428733, -0.9070696590262798, 1.9132521638612352, 1.2261265466531241, 0.7921971447026123, -0.15897194027890402, -0.21426991892177785, 0.965550175415314], [1.1318860553028627, 1.579880744015154, -0.23579182304123933, 0.04243949406968474, -0.016397363381081744, 0.2738109899638822, -0.26494629306329054, 0.7125539579555986, -1.0350772725405453, 0.5230029709227682, -1.7393358439689313, -0.4120427102401472, 0.18631316700222553, 1.171493015326135, 0.07495075633558736, 0.9639115698018713], [1.519005655853075, 0.4239923621443153, -0.7149461288872448, 0.2694783832245993, -0.166824271729253, 0.4502946926052639, 1.0092609148226097, 1.0763727573297979, -0.11713518681870906, -0.5992368803658193, 0.09466607816190413, -0.7114495902418453, 1.7341968675137256, 0.11565338574687753, -0.8704700490874654, -0.27836957378125926], [0.0657486951503382, -0.23007988293385095, 1.7405127020922229, -0.16887237569770305, -2.3996967232411763, -1.1035723455046134, 1.5733516974370332, -1.2107728076036284, 0.6935684081801717, -0.17671185890813781, -0.3336336259468059, 2.692163081214082, -0.11293297282116038, 0.6806185079793563, -0.40281274989474397, 2.037764705550115], [-0.809565286469062, 0.19674557717421148, -0.3235024127889271, -0.4711152637437835, 2.0890066146632598, 1.8409234743779297, -2.125366778939695, 0.5467167326395874, -0.459076642146717, 0.7180922335377175, -0.3864999916320602, 1.3463269537189053, 1.5470127195641672, -1.787204910504723, 0.9573663025683162, 0.00879039512246236], [-0.3326221603804141, 0.29791934868118836, 1.2533474933820499, 1.0070892589476068, -1.2621278650735752, 0.6884922585079486, -0.21391593087386282, 0.0020952937521724322, -0.24291133174202284, -1.415499124232229, -0.10180794328881891, -0.4042325667462099, -0.3808914379647687, -0.4222572731849742, 0.3620365399124246, -1.0794836204013232], [-1.4370195726620094, -0.07036460885606666, -0.3080374832606025, 0.4841715782871057, 0.03331714240902663, 0.20005652599568424, -2.6171843986190737, -0.9028304557290986, 0.9282271630413493, -1.1376702347205365, 0.1432150049648028, 0.5686077794856809, -0.5353960518184893, -2.1347557156408796, 0.3586857421940281, 0.1643743370810816], [-0.046268988580505044, -0.5134561698913261, -0.6875846411834518, 0.5116820791581931, 0.019705249796536334, -0.4803226913742324, -1.108267094994209, 1.5586624246682221, 0.16272872798431268, -1.1183521115688424, 1.1631501486148577, -0.566227186571507, 0.08319784821056543, -1.4784584255676931, 0.22683145753201417, 0.16311760109405785], [-0.5800502007007811, -0.6368374464622232, -0.3455581620464688, -0.9152375641071868, -0.20491513884479898, 0.3369825983173279, 0.8349036153798494, 0.9458454098139933, 0.8189205510052657, 0.8228713791289783, -0.9949529338608525, -1.3383213157602227, -0.25916303305362554, 0.7107947478275468, 1.4653101899311824, -0.800204450072497], [0.18109232275787593, -0.8428086855905784, -0.010350710870279107, -1.4612706513125424, 1.6872204477523618, 0.0037530094109591555, -0.17300728110018404, -0.2853883670562743, 0.2721973034846812, -0.4420211663807032, 0.7624405394093325, 0.2604140539550298, 0.08601280678108582, -0.6098465227872024, -0.16581411369665291, 0.43754226272023555], [-0.2800759062646031, 0.5418957169078389, -0.03704860737271109, 1.2405961602799846, -0.06054877657617377, 0.6451011169391779, -0.07832322699824579, 1.1423129959314389, -0.2289645244107458, 0.8322399971856699, -0.3466389114183227, 0.1966529334043215, -0.70534878525124, -0.2843687110641003, 0.05385339983479143, -0.5957140773901602], [-0.06311610593058475, -0.40278231791920943, -1.1509379418312091, -0.6470898696397234, 0.17085486365858774, 0.6980496361101513, -0.6291226282904012, -0.16923740096836354, -1.4228647185496512, 0.7270518374621295, -0.9561708999488764, -2.2990113503634717, 0.27178255472308993, 1.228549105717612, 1.8891824654641187, 1.059774213429393], [1.3131090808493273, -0.323238670689922, -0.28196786657106604, -0.028956634174549918, 0.9603392584936966, 0.10468314734470749, 1.7799327809044971, 0.23365574995649782, -0.5457954921252635, -0.19503669774744545, 2.176310495360928, 1.6480318320385334, -0.4006392460580047, 1.573292615713184, 0.265930293145517, 0.47827106799619895], [-0.8547295302650917, -0.4035228763086798, 0.32048677923066177, -0.033807178363164894, -0.36849994340640796, -0.26753909276257026, 0.4796409034636715, -0.11435213594562735, -0.04679003197433962, 1.9808362821908958, 0.048487026606250455, 0.8251303888750239, 0.8312585469772341, 0.3312013903564598, 0.15447176218850606, 0.38652133596628263], [-1.5613068316893723, -0.05871500979280025, -0.44104799472751294, 0.1966821098761492, 0.5387511120333262, -0.7172419786504847, 0.502535740109928, -0.47353905013687697, 0.09238715247077375, 0.568772683776562, -0.6915837654877056, 0.043694727644740104, 2.280148368389889, -0.46264184083186194, -0.3621079758222548, 0.19597125044852676], [-1.0685433775754907, 0.1560543937632634, 0.279475446466904, 0.18627286886597294, 0.17037443191102578, -0.9179446517220612, 0.9450321991416117, -0.9359299709257244, 0.22065181759562308, 0.5993263632221795, 1.0410882912701185, 0.022916040616593525, -0.8673499687340012, 0.5508383504924105, -0.2761965500554703, -0.8751250969904476], [-0.947606188588118, -0.41235506359830304, -0.7333646351873864, -0.20539954018453316, 0.03425019644760236, 0.2568596378819476, 0.48561162283841874, -0.7195480733644797, 0.6163719448470176, 0.5755810963406275, -0.20724094423589282, -0.5363145690850678, -0.6399309313477363, 1.5033836833959193, -1.7100251682644798, 1.2993773230934684], [-0.8724725832770283, 0.23203692962921785, -0.4891818187859515, 0.13191896136399542, -1.01495144671901, 2.0636227707467762, -0.2934741541969891, 0.33422055147316626, -1.8810231003870757, 0.4273200167805378, -0.5320160450069622, 2.286458220992543, -0.41227547642950496, 0.6231428057656091, -0.7541387867577006, 0.26089315714684347], [0.25693253290758905, 0.439492656954271, 0.6240194393710399, 0.22335380468875524, 1.249559414648316, 0.48126539392036, 1.1532240115895422, -0.8447767359699992, 0.22809337332208537, 0.11423186519070556, 0.1606350719053129, -0.01772726701572207, 1.6606954631047823, -0.9049064508258164, 1.4205801157229514, 0.04589563512591309], [-1.1062407695023566, -0.6087671075013457, 0.5539305310186606, 0.49371722648694666, -0.3868085665987173, 1.9724705881136764, -0.44567953530869425, -0.8047821921478011, 0.02458422192987718, 0.5858918493051696, 1.8691047992450354, -1.1287325953141951, 1.265931318255253, -0.28852802682331374, 1.0228487954940875, -0.027885721930772805], [0.127211466645265, 0.33802463141375866, 0.12208972317927705, -0.2704578516444173, 0.7734305231385662, -1.803898078025987, 0.044631585380275805, 1.5225919744312162, -0.8776163337809457, -0.570267628458332, -0.3692897505565183, -0.33520042456737664, -0.4677936900214199, 0.535631246976706, 0.49925508400025387, 2.1818291293513488]], [[-0.0655141948261292, 2.972303219185262, -1.274871574387001, -1.1921127717831315, -0.9153507864979206, 0.2325595554921182, 0.021689605782520605, 1.9348356411307033], [0.3730595059755344, 0.03441389396290868, -0.25767463494890686, -0.40941946698127724, 0.10237398759572218, 0.015363837110545701, -1.340612317305736, 0.5605697087202343], [0.40841489464308744, -0.008460814233586175, 1.5675825362476796, 0.3509550153851694, -0.3202999147229409, -1.3454341829769012, 1.3320012049297467, 0.07315244361563052], [-1.1593321643390244, 0.6115995475699118, -1.3206948430681291, 0.9026348510999787, -0.5258373944136777, 0.5340610135935557, -2.1916772078275386, -0.0685222617952067], [1.2191689157467045, 0.9806762589409359, -0.18083377759698233, -0.029860589525714527, 0.6278528801521417, 1.1508468536817196, -1.812930063609456, 0.07755813854548746], [-0.21177155397845154, -0.29665349006023106, -0.7503890426834541, 0.2983295881675957, 0.4569243181709891, -0.7377212093030326, 0.003775739966651962, 0.47853454377541715], [1.9104054241737618, -1.0837564249346652, -1.6114959952341052, -0.08546009460666777, 1.996677392116917, -0.665697417066846, 1.5630112249028874, -0.8130225345429786], [-0.08728753258794006, -0.5111817485835467, 1.0534757740472371, -0.5159859193342462, 0.721568226726832, 1.852748816359415, -0.2945880296856697, 0.47736435258802457], [0.6570923071989944, -0.34484745934049005, -0.9676658634477244, -1.0925373320181755, -0.6037028992671929, 0.08859008391894967, 0.5292799749019196, -0.5997611608163291], [-1.52022844299363, -0.33810638748928373, 1.1879762552262945, 1.291872958103094, 0.9900547511846066, 0.32448629922192773, 0.874443787369337, -0.10909502331152938], [-0.6986687310326528, -0.024876969215215552, 0.3349939851739079, 1.1104551380423346, -1.0654239635730176, 0.5790355912168657, 0.6436147303064932, -1.9458547856672646], [0.2840099141452346, 0.08514462508156806, 0.4124930654344898, -0.5716356990956545, -1.0211154271169933, 0.9825450764725624, 0.9665221868927041, 0.10565183980347055], [0.775313037252768, 0.5713209035873665, 0.5289333139522666, -0.10220055222419178, 2.461917983883719, 0.19769043062534947, -0.5143547090478814, -0.35731185958298395], [-1.4561224259444778, 0.09792174152714314, -0.4919284527637141, 0.2463902096727173, -1.7108220740272686, -0.8353892255614205, -1.7530902737817105, -1.4455685157751423], [0.06485850447242525, 0.05196856191756263, 1.415202126921276, -0.0017890092476659674, 0.6958177656924595, 1.1208791266230538, -0.26121188987952026, -0.2515142166865021], [-0.9323688800884712, 0.8639408637645654, 0.2438070739081206, -1.1659516960161276, -0.3717228064880505, -0.8312148029191929, 0.9851719316136892, 0.6857598394705682]], [[1.40049781824819, 0.9239320541114706, -0.32452078894774367, 0.5978026129416248], [-0.1648015708626603, -0.10501978033994362, 0.24629564445034147, 1.6055938505486267], [-0.13046629219008368, 1.3900464899364944, 0.882832717870728, -1.204084999583659], [1.1701850766410002, 0.9290546976880925, 0.3371897846404656, -0.5261532254437491], [-0.6505992214870767, 0.39684007692280626, -0.3939427332046872, -1.221421913748752], [-1.989534216246675, -1.7188204485334917, 0.7109688749052566, 0.6905785839030992], [0.2566806980189121, -0.2428608627301179, 0.21507242903484844, -1.5490316847982601], [-0.8472293841454758, 0.24852445261441122, 1.578293037567935, 0.8177945500202012]]]"